<?xml version="1.0"?>
<opencv_storage>
<cascade type_id="opencv-haar-classifier"><size>
    24 24</size>
  <stages>
    <_>
      <trees>
        <_>
          <_>
            <feature>
              <rects>
                <_>
                  0 6 21 9 -1.</_>
                <_>
                  7 6 7 9 3.</_></rects>
              <tilted>0</tilted></feature>
            <threshold>1.3309593498706818e-01</threshold>
            <left_val>-9.7519081830978394e-01</left_val>
            <right_val>9.5862424373626709e-01</right_val></_></_></trees>
      <stage_threshold>9.5862424373626709e-01</stage_threshold>
      <parent>-1</parent>
      <next>-1</next></_>
    <_>
      <trees>
        <_>
          <_>
            <feature>
              <rects>
                <_>
                  20 2 4 19 -1.</_>
                <_>
                  22 2 2 19 2.</_></rects>
              <tilted>0</tilted></feature>
            <threshold>-7.6210806146264076e-03</threshold>
            <left_val>8.9563047885894775e-01</left_val>
            <right_val>-9.9120879173278809e-01</right_val></_></_></trees>
      <stage_threshold>8.9563047885894775e-01</stage_threshold>
      <parent>0</parent>
      <next>-1</next></_>
    <_>
      <trees>
        <_>
          <_>
            <feature>
              <rects>
                <_>
                  2 0 19 24 -1.</_>
                <_>
                  2 8 19 8 3.</_></rects>
              <tilted>0</tilted></feature>
            <threshold>2.1739000082015991e-01</threshold>
            <left_val>-9.9761903285980225e-01</left_val>
            <right_val>8.6453986167907715e-01</right_val></_></_></trees>
      <stage_threshold>8.6453986167907715e-01</stage_threshold>
      <parent>1</parent>
      <next>-1</next></_>
    <_>
      <trees>
        <_>
          <_>
            <feature>
              <rects>
                <_>
                  7 23 10 1 -1.</_>
                <_>
                  12 23 5 1 2.</_></rects>
              <tilted>0</tilted></feature>
            <threshold>2.7442895807325840e-03</threshold>
            <left_val>8.3104032278060913e-01</left_val>
            <right_val>-9.8186528682708740e-01</right_val></_></_></trees>
      <stage_threshold>8.3104032278060913e-01</stage_threshold>
      <parent>2</parent>
      <next>-1</next></_>
    <_>
      <trees>
        <_>
          <_>
            <feature>
              <rects>
                <_>
                  2 22 17 2 -1.</_>
                <_>
                  2 23 17 1 2.</_></rects>
              <tilted>0</tilted></feature>
            <threshold>-1.3001072220504284e-03</threshold>
            <left_val>7.9153865575790405e-01</left_val>
            <right_val>-9.7076022624969482e-01</right_val></_></_></trees>
      <stage_threshold>7.9153865575790405e-01</stage_threshold>
      <parent>3</parent>
      <next>-1</next></_>
    <_>
      <trees>
        <_>
          <_>
            <feature>
              <rects>
                <_>
                  5 23 12 1 -1.</_>
                <_>
                  11 23 6 1 2.</_></rects>
              <tilted>0</tilted></feature>
            <threshold>-5.5982382036745548e-03</threshold>
            <left_val>-9.6158772706985474e-01</left_val>
            <right_val>8.3115625381469727e-01</right_val></_></_></trees>
      <stage_threshold>8.3115625381469727e-01</stage_threshold>
      <parent>4</parent>
      <next>-1</next></_>
    <_>
      <trees>
        <_>
          <_>
            <feature>
              <rects>
                <_>
                  18 23 6 1 -1.</_>
                <_>
                  20 23 2 1 3.</_></rects>
              <tilted>0</tilted></feature>
            <threshold>1.0626614093780518e-03</threshold>
            <left_val>7.4244171380996704e-01</left_val>
            <right_val>-9.6126759052276611e-01</right_val></_></_>
        <_>
          <_>
            <feature>
              <rects>
                <_>
                  0 5 2 12 -1.</_>
                <_>
                  0 9 2 4 3.</_></rects>
              <tilted>0</tilted></feature>
            <threshold>-4.9490337260067463e-03</threshold>
            <left_val>7.7621513605117798e-01</left_val>
            <right_val>-5.6136548519134521e-01</right_val></_></_>
        <_>
          <_>
            <feature>
              <rects>
                <_>
                  0 5 2 13 -1.</_>
                <_>
                  1 5 1 13 2.</_></rects>
              <tilted>0</tilted></feature>
            <threshold>3.8431361317634583e-03</threshold>
            <left_val>-6.2229388952255249e-01</left_val>
            <right_val>7.2239965200424194e-01</right_val></_></_></trees>
      <stage_threshold>8.9636296033859253e-01</stage_threshold>
      <parent>5</parent>
      <next>-1</next></_>
    <_>
      <trees>
        <_>
          <_>
            <feature>
              <rects>
                <_>
                  2 1 22 20 -1.</_>
                <_>
                  13 1 11 20 2.</_></rects>
              <tilted>0</tilted></feature>
            <threshold>-1.3279166072607040e-02</threshold>
            <left_val>7.2358101606369019e-01</left_val>
            <right_val>-1.</right_val></_></_>
        <_>
          <_>
            <feature>
              <rects>
                <_>
                  18 23 4 1 -1.</_>
                <_>
                  20 23 2 1 2.</_></rects>
              <tilted>0</tilted></feature>
            <threshold>-3.7526860251091421e-04</threshold>
            <left_val>-8.3859384059906006e-01</left_val>
            <right_val>5.5014580488204956e-01</right_val></_></_></trees>
      <stage_threshold>1.2737268209457397e+00</stage_threshold>
      <parent>6</parent>
      <next>-1</next></_>
    <_>
      <trees>
        <_>
          <_>
            <feature>
              <rects>
                <_>
                  21 21 3 3 -1.</_>
                <_>
                  22 21 1 3 3.</_></rects>
              <tilted>0</tilted></feature>
            <threshold>4.3150683632120490e-04</threshold>
            <left_val>7.4522292613983154e-01</left_val>
            <right_val>-9.8003327846527100e-01</right_val></_></_></trees>
      <stage_threshold>7.4522292613983154e-01</stage_threshold>
      <parent>7</parent>
      <next>-1</next></_>
    <_>
      <trees>
        <_>
          <_>
            <feature>
              <rects>
                <_>
                  5 9 6 6 -1.</_>
                <_>
                  5 11 6 2 3.</_></rects>
              <tilted>0</tilted></feature>
            <threshold>2.4768705479800701e-03</threshold>
            <left_val>-6.9053119421005249e-01</left_val>
            <right_val>7.9900288581848145e-01</right_val></_></_></trees>
      <stage_threshold>7.9900288581848145e-01</stage_threshold>
      <parent>8</parent>
      <next>-1</next></_>
    <_>
      <trees>
        <_>
          <_>
            <feature>
              <rects>
                <_>
                  20 0 4 21 -1.</_>
                <_>
                  22 0 2 21 2.</_></rects>
              <tilted>0</tilted></feature>
            <threshold>-2.5107420980930328e-02</threshold>
            <left_val>8.3193839973219796e-01</left_val>
            <right_val>-5.3191489361701205e-01</right_val></_></_></trees>
      <stage_threshold>8.3193838596343994e-01</stage_threshold>
      <parent>9</parent>
      <next>-1</next></_></stages></cascade>
</opencv_storage>
